network incalin {
property version 1.0;
property author bruno;
}

variable lo_0 {
type discrete[8] {0, 2, 4, 6, 8, 10, 12, 14};
}

variable lo_1 {
type discrete[8] {0, 2, 4, 6, 8, 10, 12, 14};
}

variable km_1 {
type discrete[5] {5_5, 6, 6_5, 7, 7_5};
}

variable km_0 {
type discrete[5] {5_5, 6, 6_5, 7, 7_5};
}

variable temperature_c {
type discrete[4] {4, 8, 12, 16};
}

probability (temperature_c) {
default 0.625 0.075 0.225 0.075;
}

probability (lo_0) {
default 0.8125 0.03125 0.028125 0.025 0.028125 0.03125 0.028125 0.015625;
}

probability (lo_1|lo_0, km_0, temperature_c) {
(0, 5_5, 4) 1 0 0 0 0 0 0 0;
(2, 5_5, 4) 0.125 0.125 0.125 0.125 0.125 0.125 0.125 0.125;
(4, 5_5, 4) 0.125 0.125 0.125 0.125 0.125 0.125 0.125 0.125;
(6, 5_5, 4) 0.125 0.125 0.125 0.125 0.125 0.125 0.125 0.125;
(8, 5_5, 4) 0.125 0.125 0.125 0.125 0.125 0.125 0.125 0.125;
(10, 5_5, 4) 0.125 0.125 0.125 0.125 0.125 0.125 0.125 0.125;
(12, 5_5, 4) 0.125 0.125 0.125 0.125 0.125 0.125 0.125 0.125;
(14, 5_5, 4) 0.125 0.125 0.125 0.125 0.125 0.125 0.125 0.125;
(0, 6, 4) 1 0 0 0 0 0 0 0;
(2, 6, 4) 0.125 0.125 0.125 0.125 0.125 0.125 0.125 0.125;
(4, 6, 4) 0.125 0.125 0.125 0.125 0.125 0.125 0.125 0.125;
(6, 6, 4) 0.125 0.125 0.125 0.125 0.125 0.125 0.125 0.125;
(8, 6, 4) 0.125 0.125 0.125 0.125 0.125 0.125 0.125 0.125;
(10, 6, 4) 0.125 0.125 0.125 0.125 0.125 0.125 0.125 0.125;
(12, 6, 4) 0.125 0.125 0.125 0.125 0.125 0.125 0.125 0.125;
(14, 6, 4) 0.125 0.125 0.125 0.125 0.125 0.125 0.125 0.125;
(0, 6_5, 4) 1 0 0 0 0 0 0 0;
(2, 6_5, 4) 0.125 0.125 0.125 0.125 0.125 0.125 0.125 0.125;
(4, 6_5, 4) 0.125 0.125 0.125 0.125 0.125 0.125 0.125 0.125;
(6, 6_5, 4) 0.125 0.125 0.125 0.125 0.125 0.125 0.125 0.125;
(8, 6_5, 4) 0.125 0.125 0.125 0.125 0.125 0.125 0.125 0.125;
(10, 6_5, 4) 0.125 0.125 0.125 0.125 0.125 0.125 0.125 0.125;
(12, 6_5, 4) 0.125 0.125 0.125 0.125 0.125 0.125 0.125 0.125;
(14, 6_5, 4) 0.125 0.125 0.125 0.125 0.125 0.125 0.125 0.125;
(0, 7, 4) 1 0 0 0 0 0 0 0;
(2, 7, 4) 0.125 0.125 0.125 0.125 0.125 0.125 0.125 0.125;
(4, 7, 4) 0.125 0.125 0.125 0.125 0.125 0.125 0.125 0.125;
(6, 7, 4) 0.125 0.125 0.125 0.125 0.125 0.125 0.125 0.125;
(8, 7, 4) 0.125 0.125 0.125 0.125 0.125 0.125 0.125 0.125;
(10, 7, 4) 0.125 0.125 0.125 0.125 0.125 0.125 0.125 0.125;
(12, 7, 4) 0.125 0.125 0.125 0.125 0.125 0.125 0.125 0.125;
(14, 7, 4) 0.125 0.125 0.125 0.125 0.125 0.125 0.125 0.125;
(0, 7_5, 4) 1 0 0 0 0 0 0 0;
(2, 7_5, 4) 0.125 0.125 0.125 0.125 0.125 0.125 0.125 0.125;
(4, 7_5, 4) 0.125 0.125 0.125 0.125 0.125 0.125 0.125 0.125;
(6, 7_5, 4) 0.125 0.125 0.125 0.125 0.125 0.125 0.125 0.125;
(8, 7_5, 4) 0.125 0.125 0.125 0.125 0.125 0.125 0.125 0.125;
(10, 7_5, 4) 0.125 0.125 0.125 0.125 0.125 0.125 0.125 0.125;
(12, 7_5, 4) 0.125 0.125 0.125 0.125 0.125 0.125 0.125 0.125;
(14, 7_5, 4) 0.125 0.125 0.125 0.125 0.125 0.125 0.125 0.125;
(0, 5_5, 8) 0.125 0.125 0.125 0.125 0.125 0.125 0.125 0.125;
(2, 5_5, 8) 0.125 0.125 0.125 0.125 0.125 0.125 0.125 0.125;
(4, 5_5, 8) 0.125 0.125 0.125 0.125 0.125 0.125 0.125 0.125;
(6, 5_5, 8) 0.125 0.125 0.125 0.125 0.125 0.125 0.125 0.125;
(8, 5_5, 8) 0.125 0.125 0.125 0.125 0.125 0.125 0.125 0.125;
(10, 5_5, 8) 0.125 0.125 0.125 0.125 0.125 0.125 0.125 0.125;
(12, 5_5, 8) 0.125 0.125 0.125 0.125 0.125 0.125 0.125 0.125;
(14, 5_5, 8) 0.125 0.125 0.125 0.125 0.125 0.125 0.125 0.125;
(0, 6, 8) 0.125 0.125 0.125 0.125 0.125 0.125 0.125 0.125;
(2, 6, 8) 0.125 0.125 0.125 0.125 0.125 0.125 0.125 0.125;
(4, 6, 8) 0.125 0.125 0.125 0.125 0.125 0.125 0.125 0.125;
(6, 6, 8) 0.125 0.125 0.125 0.125 0.125 0.125 0.125 0.125;
(8, 6, 8) 0.125 0.125 0.125 0.125 0.125 0.125 0.125 0.125;
(10, 6, 8) 0.125 0.125 0.125 0.125 0.125 0.125 0.125 0.125;
(12, 6, 8) 0.125 0.125 0.125 0.125 0.125 0.125 0.125 0.125;
(14, 6, 8) 0.125 0.125 0.125 0.125 0.125 0.125 0.125 0.125;
(0, 6_5, 8) 0.125 0.125 0.125 0.125 0.125 0.125 0.125 0.125;
(2, 6_5, 8) 0.125 0.125 0.125 0.125 0.125 0.125 0.125 0.125;
(4, 6_5, 8) 0.125 0.125 0.125 0.125 0.125 0.125 0.125 0.125;
(6, 6_5, 8) 0.125 0.125 0.125 0.125 0.125 0.125 0.125 0.125;
(8, 6_5, 8) 0.125 0.125 0.125 0.125 0.125 0.125 0.125 0.125;
(10, 6_5, 8) 0 0 0 0 0 1 0 0;
(12, 6_5, 8) 0 0 0 0 0 0.666666666666667 0.333333333333333 0;
(14, 6_5, 8) 0.125 0.125 0.125 0.125 0.125 0.125 0.125 0.125;
(0, 7, 8) 0.125 0.125 0.125 0.125 0.125 0.125 0.125 0.125;
(2, 7, 8) 0.125 0.125 0.125 0.125 0.125 0.125 0.125 0.125;
(4, 7, 8) 0.125 0.125 0.125 0.125 0.125 0.125 0.125 0.125;
(6, 7, 8) 0.125 0.125 0.125 0.125 0.125 0.125 0.125 0.125;
(8, 7, 8) 0 0 0 1 0 0 0 0;
(10, 7, 8) 0 0 0 0 0.5 0.5 0 0;
(12, 7, 8) 0.125 0.125 0.125 0.125 0.125 0.125 0.125 0.125;
(14, 7, 8) 0.125 0.125 0.125 0.125 0.125 0.125 0.125 0.125;
(0, 7_5, 8) 1 0 0 0 0 0 0 0;
(2, 7_5, 8) 0.5 0.5 0 0 0 0 0 0;
(4, 7_5, 8) 0 0.5 0.5 0 0 0 0 0;
(6, 7_5, 8) 0 0 1 0 0 0 0 0;
(8, 7_5, 8) 0.125 0.125 0.125 0.125 0.125 0.125 0.125 0.125;
(10, 7_5, 8) 0.125 0.125 0.125 0.125 0.125 0.125 0.125 0.125;
(12, 7_5, 8) 0.125 0.125 0.125 0.125 0.125 0.125 0.125 0.125;
(14, 7_5, 8) 0.125 0.125 0.125 0.125 0.125 0.125 0.125 0.125;
(0, 5_5, 12) 0.125 0.125 0.125 0.125 0.125 0.125 0.125 0.125;
(2, 5_5, 12) 0.125 0.125 0.125 0.125 0.125 0.125 0.125 0.125;
(4, 5_5, 12) 0.125 0.125 0.125 0.125 0.125 0.125 0.125 0.125;
(6, 5_5, 12) 0.125 0.125 0.125 0.125 0.125 0.125 0.125 0.125;
(8, 5_5, 12) 0.125 0.125 0.125 0.125 0.125 0.125 0.125 0.125;
(10, 5_5, 12) 0.125 0.125 0.125 0.125 0.125 0.125 0.125 0.125;
(12, 5_5, 12) 0 0 0 0 0 1 0 0;
(14, 5_5, 12) 0 0 0 0 0 0 1 0;
(0, 6, 12) 0.125 0.125 0.125 0.125 0.125 0.125 0.125 0.125;
(2, 6, 12) 0.125 0.125 0.125 0.125 0.125 0.125 0.125 0.125;
(4, 6, 12) 0.125 0.125 0.125 0.125 0.125 0.125 0.125 0.125;
(6, 6, 12) 0.125 0.125 0.125 0.125 0.125 0.125 0.125 0.125;
(8, 6, 12) 0 0 0 0 1 0 0 0;
(10, 6, 12) 0 0 0 0 0 1 0 0;
(12, 6, 12) 0 0 0 0 0 0.6 0.4 0;
(14, 6, 12) 0 0 0 0 0 0 1 0;
(0, 6_5, 12) 0.125 0.125 0.125 0.125 0.125 0.125 0.125 0.125;
(2, 6_5, 12) 0.125 0.125 0.125 0.125 0.125 0.125 0.125 0.125;
(4, 6_5, 12) 0.125 0.125 0.125 0.125 0.125 0.125 0.125 0.125;
(6, 6_5, 12) 0 0 0 1 0 0 0 0;
(8, 6_5, 12) 0 0 0 1 0 0 0 0;
(10, 6_5, 12) 0 0 0 0 1 0 0 0;
(12, 6_5, 12) 0.125 0.125 0.125 0.125 0.125 0.125 0.125 0.125;
(14, 6_5, 12) 0.125 0.125 0.125 0.125 0.125 0.125 0.125 0.125;
(0, 7, 12) 1 0 0 0 0 0 0 0;
(2, 7, 12) 0.125 0.125 0.125 0.125 0.125 0.125 0.125 0.125;
(4, 7, 12) 0 1 0 0 0 0 0 0;
(6, 7, 12) 0 0 1 0 0 0 0 0;
(8, 7, 12) 0 0 0 1 0 0 0 0;
(10, 7, 12) 0.125 0.125 0.125 0.125 0.125 0.125 0.125 0.125;
(12, 7, 12) 0.125 0.125 0.125 0.125 0.125 0.125 0.125 0.125;
(14, 7, 12) 0.125 0.125 0.125 0.125 0.125 0.125 0.125 0.125;
(0, 7_5, 12) 1 0 0 0 0 0 0 0;
(2, 7_5, 12) 0.8 0.2 0 0 0 0 0 0;
(4, 7_5, 12) 0 1 0 0 0 0 0 0;
(6, 7_5, 12) 0 0 1 0 0 0 0 0;
(8, 7_5, 12) 0.125 0.125 0.125 0.125 0.125 0.125 0.125 0.125;
(10, 7_5, 12) 0.125 0.125 0.125 0.125 0.125 0.125 0.125 0.125;
(12, 7_5, 12) 0.125 0.125 0.125 0.125 0.125 0.125 0.125 0.125;
(14, 7_5, 12) 0.125 0.125 0.125 0.125 0.125 0.125 0.125 0.125;
(0, 5_5, 16) 0.125 0.125 0.125 0.125 0.125 0.125 0.125 0.125;
(2, 5_5, 16) 0.125 0.125 0.125 0.125 0.125 0.125 0.125 0.125;
(4, 5_5, 16) 0.125 0.125 0.125 0.125 0.125 0.125 0.125 0.125;
(6, 5_5, 16) 0.125 0.125 0.125 0.125 0.125 0.125 0.125 0.125;
(8, 5_5, 16) 0.125 0.125 0.125 0.125 0.125 0.125 0.125 0.125;
(10, 5_5, 16) 0.125 0.125 0.125 0.125 0.125 0.125 0.125 0.125;
(12, 5_5, 16) 0.125 0.125 0.125 0.125 0.125 0.125 0.125 0.125;
(14, 5_5, 16) 0.125 0.125 0.125 0.125 0.125 0.125 0.125 0.125;
(0, 6, 16) 0.125 0.125 0.125 0.125 0.125 0.125 0.125 0.125;
(2, 6, 16) 0.125 0.125 0.125 0.125 0.125 0.125 0.125 0.125;
(4, 6, 16) 0.125 0.125 0.125 0.125 0.125 0.125 0.125 0.125;
(6, 6, 16) 0.125 0.125 0.125 0.125 0.125 0.125 0.125 0.125;
(8, 6, 16) 0.125 0.125 0.125 0.125 0.125 0.125 0.125 0.125;
(10, 6, 16) 0.125 0.125 0.125 0.125 0.125 0.125 0.125 0.125;
(12, 6, 16) 0.125 0.125 0.125 0.125 0.125 0.125 0.125 0.125;
(14, 6, 16) 0.125 0.125 0.125 0.125 0.125 0.125 0.125 0.125;
(0, 6_5, 16) 0.125 0.125 0.125 0.125 0.125 0.125 0.125 0.125;
(2, 6_5, 16) 0.125 0.125 0.125 0.125 0.125 0.125 0.125 0.125;
(4, 6_5, 16) 0.125 0.125 0.125 0.125 0.125 0.125 0.125 0.125;
(6, 6_5, 16) 0.125 0.125 0.125 0.125 0.125 0.125 0.125 0.125;
(8, 6_5, 16) 0.125 0.125 0.125 0.125 0.125 0.125 0.125 0.125;
(10, 6_5, 16) 0 0 0 0.5 0.5 0 0 0;
(12, 6_5, 16) 0.125 0.125 0.125 0.125 0.125 0.125 0.125 0.125;
(14, 6_5, 16) 0.125 0.125 0.125 0.125 0.125 0.125 0.125 0.125;
(0, 7, 16) 1 0 0 0 0 0 0 0;
(2, 7, 16) 0.125 0.125 0.125 0.125 0.125 0.125 0.125 0.125;
(4, 7, 16) 0.125 0.125 0.125 0.125 0.125 0.125 0.125 0.125;
(6, 7, 16) 0 1 0 0 0 0 0 0;
(8, 7, 16) 0 0 1 0 0 0 0 0;
(10, 7, 16) 0.125 0.125 0.125 0.125 0.125 0.125 0.125 0.125;
(12, 7, 16) 0.125 0.125 0.125 0.125 0.125 0.125 0.125 0.125;
(14, 7, 16) 0.125 0.125 0.125 0.125 0.125 0.125 0.125 0.125;
(0, 7_5, 16) 1 0 0 0 0 0 0 0;
(2, 7_5, 16) 1 0 0 0 0 0 0 0;
(4, 7_5, 16) 1 0 0 0 0 0 0 0;
(6, 7_5, 16) 0.125 0.125 0.125 0.125 0.125 0.125 0.125 0.125;
(8, 7_5, 16) 0.125 0.125 0.125 0.125 0.125 0.125 0.125 0.125;
(10, 7_5, 16) 0.125 0.125 0.125 0.125 0.125 0.125 0.125 0.125;
(12, 7_5, 16) 0.125 0.125 0.125 0.125 0.125 0.125 0.125 0.125;
(14, 7_5, 16) 0.125 0.125 0.125 0.125 0.125 0.125 0.125 0.125;
}

probability (km_1|km_0, lo_0, temperature_c) {
(5_5, 0, 4) 0 1 0 0 0;
(6, 0, 4) 0.0714285714285714 0.928571428571429 0 0 0;
(6_5, 0, 4) 0 0.0655737704918033 0.934426229508197 0 0;
(7, 0, 4) 0 0 0.0945945945945946 0.905405405405405 0;
(7_5, 0, 4) 0 0 0 0.12 0.88;
(5_5, 2, 4) 0.2 0.2 0.2 0.2 0.2;
(6, 2, 4) 0.2 0.2 0.2 0.2 0.2;
(6_5, 2, 4) 0.2 0.2 0.2 0.2 0.2;
(7, 2, 4) 0.2 0.2 0.2 0.2 0.2;
(7_5, 2, 4) 0.2 0.2 0.2 0.2 0.2;
(5_5, 4, 4) 0.2 0.2 0.2 0.2 0.2;
(6, 4, 4) 0.2 0.2 0.2 0.2 0.2;
(6_5, 4, 4) 0.2 0.2 0.2 0.2 0.2;
(7, 4, 4) 0.2 0.2 0.2 0.2 0.2;
(7_5, 4, 4) 0.2 0.2 0.2 0.2 0.2;
(5_5, 6, 4) 0.2 0.2 0.2 0.2 0.2;
(6, 6, 4) 0.2 0.2 0.2 0.2 0.2;
(6_5, 6, 4) 0.2 0.2 0.2 0.2 0.2;
(7, 6, 4) 0.2 0.2 0.2 0.2 0.2;
(7_5, 6, 4) 0.2 0.2 0.2 0.2 0.2;
(5_5, 8, 4) 0.2 0.2 0.2 0.2 0.2;
(6, 8, 4) 0.2 0.2 0.2 0.2 0.2;
(6_5, 8, 4) 0.2 0.2 0.2 0.2 0.2;
(7, 8, 4) 0.2 0.2 0.2 0.2 0.2;
(7_5, 8, 4) 0.2 0.2 0.2 0.2 0.2;
(5_5, 10, 4) 0.2 0.2 0.2 0.2 0.2;
(6, 10, 4) 0.2 0.2 0.2 0.2 0.2;
(6_5, 10, 4) 0.2 0.2 0.2 0.2 0.2;
(7, 10, 4) 0.2 0.2 0.2 0.2 0.2;
(7_5, 10, 4) 0.2 0.2 0.2 0.2 0.2;
(5_5, 12, 4) 0.2 0.2 0.2 0.2 0.2;
(6, 12, 4) 0.2 0.2 0.2 0.2 0.2;
(6_5, 12, 4) 0.2 0.2 0.2 0.2 0.2;
(7, 12, 4) 0.2 0.2 0.2 0.2 0.2;
(7_5, 12, 4) 0.2 0.2 0.2 0.2 0.2;
(5_5, 14, 4) 0.2 0.2 0.2 0.2 0.2;
(6, 14, 4) 0.2 0.2 0.2 0.2 0.2;
(6_5, 14, 4) 0.2 0.2 0.2 0.2 0.2;
(7, 14, 4) 0.2 0.2 0.2 0.2 0.2;
(7_5, 14, 4) 0.2 0.2 0.2 0.2 0.2;
(5_5, 0, 8) 0.2 0.2 0.2 0.2 0.2;
(6, 0, 8) 0.2 0.2 0.2 0.2 0.2;
(6_5, 0, 8) 0.2 0.2 0.2 0.2 0.2;
(7, 0, 8) 0.2 0.2 0.2 0.2 0.2;
(7_5, 0, 8) 0 0 0 0 1;
(5_5, 2, 8) 0.2 0.2 0.2 0.2 0.2;
(6, 2, 8) 0.2 0.2 0.2 0.2 0.2;
(6_5, 2, 8) 0.2 0.2 0.2 0.2 0.2;
(7, 2, 8) 0.2 0.2 0.2 0.2 0.2;
(7_5, 2, 8) 0 0 0 0 1;
(5_5, 4, 8) 0.2 0.2 0.2 0.2 0.2;
(6, 4, 8) 0.2 0.2 0.2 0.2 0.2;
(6_5, 4, 8) 0.2 0.2 0.2 0.2 0.2;
(7, 4, 8) 0.2 0.2 0.2 0.2 0.2;
(7_5, 4, 8) 0 0 0 0 1;
(5_5, 6, 8) 0.2 0.2 0.2 0.2 0.2;
(6, 6, 8) 0.2 0.2 0.2 0.2 0.2;
(6_5, 6, 8) 0.2 0.2 0.2 0.2 0.2;
(7, 6, 8) 0.2 0.2 0.2 0.2 0.2;
(7_5, 6, 8) 0 0 0 0 1;
(5_5, 8, 8) 0.2 0.2 0.2 0.2 0.2;
(6, 8, 8) 0.2 0.2 0.2 0.2 0.2;
(6_5, 8, 8) 0.2 0.2 0.2 0.2 0.2;
(7, 8, 8) 0 0 0 0 1;
(7_5, 8, 8) 0.2 0.2 0.2 0.2 0.2;
(5_5, 10, 8) 0.2 0.2 0.2 0.2 0.2;
(6, 10, 8) 0.2 0.2 0.2 0.2 0.2;
(6_5, 10, 8) 0 0 0 1 0;
(7, 10, 8) 0 0 0 1 0;
(7_5, 10, 8) 0.2 0.2 0.2 0.2 0.2;
(5_5, 12, 8) 0.2 0.2 0.2 0.2 0.2;
(6, 12, 8) 0.2 0.2 0.2 0.2 0.2;
(6_5, 12, 8) 0 0 0.666666666666667 0.333333333333333 0;
(7, 12, 8) 0.2 0.2 0.2 0.2 0.2;
(7_5, 12, 8) 0.2 0.2 0.2 0.2 0.2;
(5_5, 14, 8) 0.2 0.2 0.2 0.2 0.2;
(6, 14, 8) 0.2 0.2 0.2 0.2 0.2;
(6_5, 14, 8) 0.2 0.2 0.2 0.2 0.2;
(7, 14, 8) 0.2 0.2 0.2 0.2 0.2;
(7_5, 14, 8) 0.2 0.2 0.2 0.2 0.2;
(5_5, 0, 12) 0.2 0.2 0.2 0.2 0.2;
(6, 0, 12) 0.2 0.2 0.2 0.2 0.2;
(6_5, 0, 12) 0.2 0.2 0.2 0.2 0.2;
(7, 0, 12) 0 0 0 1 0;
(7_5, 0, 12) 0 0 0 0 1;
(5_5, 2, 12) 0.2 0.2 0.2 0.2 0.2;
(6, 2, 12) 0.2 0.2 0.2 0.2 0.2;
(6_5, 2, 12) 0.2 0.2 0.2 0.2 0.2;
(7, 2, 12) 0.2 0.2 0.2 0.2 0.2;
(7_5, 2, 12) 0 0 0 0 1;
(5_5, 4, 12) 0.2 0.2 0.2 0.2 0.2;
(6, 4, 12) 0.2 0.2 0.2 0.2 0.2;
(6_5, 4, 12) 0.2 0.2 0.2 0.2 0.2;
(7, 4, 12) 0 0 0 0 1;
(7_5, 4, 12) 0 0 0 0 1;
(5_5, 6, 12) 0.2 0.2 0.2 0.2 0.2;
(6, 6, 12) 0.2 0.2 0.2 0.2 0.2;
(6_5, 6, 12) 0 0 0 1 0;
(7, 6, 12) 0 0 0 0.5 0.5;
(7_5, 6, 12) 0 0 0 0 1;
(5_5, 8, 12) 0.2 0.2 0.2 0.2 0.2;
(6, 8, 12) 0 0 1 0 0;
(6_5, 8, 12) 0 0 0.5 0.5 0;
(7, 8, 12) 0 0 0 0 1;
(7_5, 8, 12) 0.2 0.2 0.2 0.2 0.2;
(5_5, 10, 12) 0.2 0.2 0.2 0.2 0.2;
(6, 10, 12) 0 0 1 0 0;
(6_5, 10, 12) 0 0 0 1 0;
(7, 10, 12) 0.2 0.2 0.2 0.2 0.2;
(7_5, 10, 12) 0.2 0.2 0.2 0.2 0.2;
(5_5, 12, 12) 0 1 0 0 0;
(6, 12, 12) 0 0 1 0 0;
(6_5, 12, 12) 0.2 0.2 0.2 0.2 0.2;
(7, 12, 12) 0.2 0.2 0.2 0.2 0.2;
(7_5, 12, 12) 0.2 0.2 0.2 0.2 0.2;
(5_5, 14, 12) 0 1 0 0 0;
(6, 14, 12) 0 1 0 0 0;
(6_5, 14, 12) 0.2 0.2 0.2 0.2 0.2;
(7, 14, 12) 0.2 0.2 0.2 0.2 0.2;
(7_5, 14, 12) 0.2 0.2 0.2 0.2 0.2;
(5_5, 0, 16) 0.2 0.2 0.2 0.2 0.2;
(6, 0, 16) 0.2 0.2 0.2 0.2 0.2;
(6_5, 0, 16) 0.2 0.2 0.2 0.2 0.2;
(7, 0, 16) 0 0 0 1 0;
(7_5, 0, 16) 0 0 0 0.125 0.875;
(5_5, 2, 16) 0.2 0.2 0.2 0.2 0.2;
(6, 2, 16) 0.2 0.2 0.2 0.2 0.2;
(6_5, 2, 16) 0.2 0.2 0.2 0.2 0.2;
(7, 2, 16) 0.2 0.2 0.2 0.2 0.2;
(7_5, 2, 16) 0 0 0 0 1;
(5_5, 4, 16) 0.2 0.2 0.2 0.2 0.2;
(6, 4, 16) 0.2 0.2 0.2 0.2 0.2;
(6_5, 4, 16) 0.2 0.2 0.2 0.2 0.2;
(7, 4, 16) 0.2 0.2 0.2 0.2 0.2;
(7_5, 4, 16) 0 0 0 0 1;
(5_5, 6, 16) 0.2 0.2 0.2 0.2 0.2;
(6, 6, 16) 0.2 0.2 0.2 0.2 0.2;
(6_5, 6, 16) 0.2 0.2 0.2 0.2 0.2;
(7, 6, 16) 0 0 0 0 1;
(7_5, 6, 16) 0.2 0.2 0.2 0.2 0.2;
(5_5, 8, 16) 0.2 0.2 0.2 0.2 0.2;
(6, 8, 16) 0.2 0.2 0.2 0.2 0.2;
(6_5, 8, 16) 0.2 0.2 0.2 0.2 0.2;
(7, 8, 16) 0 0 0 0 1;
(7_5, 8, 16) 0.2 0.2 0.2 0.2 0.2;
(5_5, 10, 16) 0.2 0.2 0.2 0.2 0.2;
(6, 10, 16) 0.2 0.2 0.2 0.2 0.2;
(6_5, 10, 16) 0 0 0 1 0;
(7, 10, 16) 0.2 0.2 0.2 0.2 0.2;
(7_5, 10, 16) 0.2 0.2 0.2 0.2 0.2;
(5_5, 12, 16) 0.2 0.2 0.2 0.2 0.2;
(6, 12, 16) 0.2 0.2 0.2 0.2 0.2;
(6_5, 12, 16) 0.2 0.2 0.2 0.2 0.2;
(7, 12, 16) 0.2 0.2 0.2 0.2 0.2;
(7_5, 12, 16) 0.2 0.2 0.2 0.2 0.2;
(5_5, 14, 16) 0.2 0.2 0.2 0.2 0.2;
(6, 14, 16) 0.2 0.2 0.2 0.2 0.2;
(6_5, 14, 16) 0.2 0.2 0.2 0.2 0.2;
(7, 14, 16) 0.2 0.2 0.2 0.2 0.2;
(7_5, 14, 16) 0.2 0.2 0.2 0.2 0.2;
}

probability (km_0) {
default 0.015625 0.075 0.225 0.284375 0.4;
}

